digraph Tree {
node [shape=box, style="filled, rounded", color="black", fontname="SimHei"] ;
edge [fontname="SimHei"] ;
0 [label=<overall_tax_burden_limit &le; -0.528<br/>entropy = 0.983<br/>samples = 99<br/>value = [57, 42]<br/>class = no fraud>, fillcolor="#e5813943"] ;
1 [label=<sales_mode_其它 &le; 0.5<br/>entropy = 0.567<br/>samples = 45<br/>value = [6, 39]<br/>class = fraud>, fillcolor="#399de5d8"] ;
0 -> 1 [labeldistance=2.5, labelangle=45, headlabel="True"] ;
2 [label=<inventory_turnover &le; 0.187<br/>entropy = 0.461<br/>samples = 41<br/>value = [4, 37]<br/>class = fraud>, fillcolor="#399de5e3"] ;
1 -> 2 ;
3 [label=<inventory_turnover &le; -0.077<br/>entropy = 0.592<br/>samples = 28<br/>value = [4, 24]<br/>class = fraud>, fillcolor="#399de5d4"] ;
2 -> 3 ;
4 [label=<sales_mode_二级及二级以下代理商 &le; 0.5<br/>entropy = 0.503<br/>samples = 27<br/>value = [3, 24]<br/>class = fraud>, fillcolor="#399de5df"] ;
3 -> 4 ;
5 [label=<inventory_turnover &le; -0.772<br/>entropy = 0.629<br/>samples = 19<br/>value = [3, 16]<br/>class = fraud>, fillcolor="#399de5cf"] ;
4 -> 5 ;
6 [label=<sales_type_其它 &le; 0.5<br/>entropy = 0.811<br/>samples = 12<br/>value = [3, 9]<br/>class = fraud>, fillcolor="#399de5aa"] ;
5 -> 6 ;
7 [label=<inventory_turnover &le; -0.778<br/>entropy = 0.684<br/>samples = 11<br/>value = [2, 9]<br/>class = fraud>, fillcolor="#399de5c6"] ;
6 -> 7 ;
8 [label=<sales_type_国产轿车 &le; 0.5<br/>entropy = 0.469<br/>samples = 10<br/>value = [1, 9]<br/>class = fraud>, fillcolor="#399de5e3"] ;
7 -> 8 ;
9 [label=<entropy = 0.0<br/>samples = 6<br/>value = [0, 6]<br/>class = fraud>, fillcolor="#399de5ff"] ;
8 -> 9 ;
10 [label=<profits_to_costs &le; -0.161<br/>entropy = 0.811<br/>samples = 4<br/>value = [1, 3]<br/>class = fraud>, fillcolor="#399de5aa"] ;
8 -> 10 ;
11 [label=<entropy = 0.0<br/>samples = 2<br/>value = [0, 2]<br/>class = fraud>, fillcolor="#399de5ff"] ;
10 -> 11 ;
12 [label=<entropy = 1.0<br/>samples = 2<br/>value = [1, 1]<br/>class = no fraud>, fillcolor="#e5813900"] ;
10 -> 12 ;
13 [label=<entropy = 0.0<br/>samples = 1<br/>value = [1, 0]<br/>class = no fraud>, fillcolor="#e58139ff"] ;
7 -> 13 ;
14 [label=<entropy = 0.0<br/>samples = 1<br/>value = [1, 0]<br/>class = no fraud>, fillcolor="#e58139ff"] ;
6 -> 14 ;
15 [label=<entropy = 0.0<br/>samples = 7<br/>value = [0, 7]<br/>class = fraud>, fillcolor="#399de5ff"] ;
5 -> 15 ;
16 [label=<entropy = 0.0<br/>samples = 8<br/>value = [0, 8]<br/>class = fraud>, fillcolor="#399de5ff"] ;
4 -> 16 ;
17 [label=<entropy = 0.0<br/>samples = 1<br/>value = [1, 0]<br/>class = no fraud>, fillcolor="#e58139ff"] ;
3 -> 17 ;
18 [label=<entropy = 0.0<br/>samples = 13<br/>value = [0, 13]<br/>class = fraud>, fillcolor="#399de5ff"] ;
2 -> 18 ;
19 [label=<profits_to_costs &le; -0.148<br/>entropy = 1.0<br/>samples = 4<br/>value = [2, 2]<br/>class = no fraud>, fillcolor="#e5813900"] ;
1 -> 19 ;
20 [label=<entropy = 0.0<br/>samples = 2<br/>value = [0, 2]<br/>class = fraud>, fillcolor="#399de5ff"] ;
19 -> 20 ;
21 [label=<entropy = 0.0<br/>samples = 2<br/>value = [2, 0]<br/>class = no fraud>, fillcolor="#e58139ff"] ;
19 -> 21 ;
22 [label=<profits_to_costs &le; 0.363<br/>entropy = 0.31<br/>samples = 54<br/>value = [51, 3]<br/>class = no fraud>, fillcolor="#e58139f0"] ;
0 -> 22 [labeldistance=2.5, labelangle=-45, headlabel="False"] ;
23 [label=<entropy = 0.0<br/>samples = 46<br/>value = [46, 0]<br/>class = no fraud>, fillcolor="#e58139ff"] ;
22 -> 23 ;
24 [label=<overall_tax_burden &le; 0.362<br/>entropy = 0.954<br/>samples = 8<br/>value = [5, 3]<br/>class = no fraud>, fillcolor="#e5813966"] ;
22 -> 24 ;
25 [label=<inventory_turnover &le; 0.395<br/>entropy = 0.65<br/>samples = 6<br/>value = [5, 1]<br/>class = no fraud>, fillcolor="#e58139cc"] ;
24 -> 25 ;
26 [label=<entropy = 0.0<br/>samples = 5<br/>value = [5, 0]<br/>class = no fraud>, fillcolor="#e58139ff"] ;
25 -> 26 ;
27 [label=<entropy = 0.0<br/>samples = 1<br/>value = [0, 1]<br/>class = fraud>, fillcolor="#399de5ff"] ;
25 -> 27 ;
28 [label=<entropy = 0.0<br/>samples = 2<br/>value = [0, 2]<br/>class = fraud>, fillcolor="#399de5ff"] ;
24 -> 28 ;
}